<?xml version="1.0"?>
<opencv_storage>
<cascade>
  <stageType>BOOST</stageType>
  <featureType>LBP</featureType>
  <height>40</height>
  <width>80</width>
  <stageParams>
    <boostType>GAB</boostType>
    <minHitRate>9.9900001287460327e-01</minHitRate>
    <maxFalseAlarm>5.0000000000000000e-01</maxFalseAlarm>
    <weightTrimRate>9.4999999999999996e-01</weightTrimRate>
    <maxDepth>1</maxDepth>
    <maxWeakCount>100</maxWeakCount></stageParams>
  <featureParams>
    <maxCatCount>256</maxCatCount>
    <featSize>1</featSize></featureParams>
  <stageNum>20</stageNum>
  <stages>
    <!-- stage 0 -->
    <_>
      <maxWeakCount>2</maxWeakCount>
      <stageThreshold>-3.9551544934511185e-02</stageThreshold>
      <weakClassifiers>
        <_>
          <internalNodes>
            0 -1 59 -150735894 -787099646 -1878851581 1359167491
            -2147250033 1610612737 -2129993573 -238296689</internalNodes>
          <leafValues>
            -9.5979899168014526e-01 9.7008973360061646e-01</leafValues></_>
        <_>
          <internalNodes>
            0 -1 52 -216532993 -721301503 -1811839997 1371771523
            -1038694150 -1675587581 1090553995 5491167</internalNodes>
          <leafValues>
            -9.9082720279693604e-01 9.2024743556976318e-01</leafValues></_></weakClassifiers></_>
    <!-- stage 1 -->
    <_>
      <maxWeakCount>2</maxWeakCount>
      <stageThreshold>-7.7727764844894409e-02</stageThreshold>
      <weakClassifiers>
        <_>
          <internalNodes>
            0 -1 50 -36635137 -648691581 -1073639359 -712277981
            -1073700213 -1073053568 -796341557 -68163089</internalNodes>
          <leafValues>
            -9.6791446208953857e-01 9.0760344266891479e-01</leafValues></_>
        <_>
          <internalNodes>
            0 -1 65 -10225673 -141094757 -398178919 -57130725 -117968161
            -61751037 -393348454 -922879269</internalNodes>
          <leafValues>
            -9.2849540710449219e-01 8.9018666744232178e-01</leafValues></_></weakClassifiers></_>
    <!-- stage 2 -->
    <_>
      <maxWeakCount>3</maxWeakCount>
      <stageThreshold>-1.0128638744354248e+00</stageThreshold>
      <weakClassifiers>
        <_>
          <internalNodes>
            0 -1 4 -107555374 -544501502 -1056929527 -547940583
            -968255332 -400490368 -931036529 -4462705</internalNodes>
          <leafValues>
            -9.6316760778427124e-01 8.7322610616683960e-01</leafValues></_>
        <_>
          <internalNodes>
            0 -1 57 -685914625 -136356389 1395073527 -666962816
            -347531845 -606615250 -1441804317 -253234229</internalNodes>
          <leafValues>
            -9.0403115749359131e-01 8.3330637216567993e-01</leafValues></_>
        <_>
          <internalNodes>
            0 -1 24 -875561489 -707702528 -981348931 -610451199
            -2134865269 -114718431 -913077025 -1635017589</internalNodes>
          <leafValues>
            -8.2531172037124634e-01 8.5433483123779297e-01</leafValues></_></weakClassifiers></_>
    <!-- stage 3 -->
    <_>
      <maxWeakCount>3</maxWeakCount>
      <stageThreshold>-1.0145603418350220e+00</stageThreshold>
      <weakClassifiers>
        <_>
          <internalNodes>
            0 -1 55 -176687105 -46872476 1421019879 -639176305
            -1635538001 -1191122268 -2004311665 -71509260</internalNodes>
          <leafValues>
            -9.5872420072555542e-01 8.5379570722579956e-01</leafValues></_>
        <_>
          <internalNodes>
            0 -1 35 -719334913 -146439715 -723979879 -38467823
            -376913186 -632696678 -326567777 -36583023</internalNodes>
          <leafValues>
            -8.5391193628311157e-01 8.3972674608230591e-01</leafValues></_>
        <_>
          <internalNodes>
            0 -1 30 -119865889 -149898329 -1878936931 -9973501
            -255681814 -555057152 -125310467 -67109985</internalNodes>
          <leafValues>
            -8.8775289058685303e-01 7.9807573556900024e-01</leafValues></_></weakClassifiers></_>
    <!-- stage 4 -->
    <_>
      <maxWeakCount>2</maxWeakCount>
      <stageThreshold>-1.5691269934177399e-01</stageThreshold>
      <weakClassifiers>
        <_>
          <internalNodes>
            0 -1 10 -688343073 -540752505 1613553943 -438470351
            -303509761 -91258871 -471553121 -6296789</internalNodes>
          <leafValues>
            -9.5967739820480347e-01 7.9347825050354004e-01</leafValues></_>
        <_>
          <internalNodes>
            0 -1 65 -241189569 -94377969 120820087 -94650385 -1291210973
            -745070575 -1890408657 -455085081</internalNodes>
          <leafValues>
            -8.4781098365783691e-01 8.0276471376419067e-01</leafValues></_></weakClassifiers></_>
    <!-- stage 5 -->
    <_>
      <maxWeakCount>3</maxWeakCount>
      <stageThreshold>-1.0397179126739502e+00</stageThreshold>
      <weakClassifiers>
        <_>
          <internalNodes>
            0 -1 60 -213126305 -556564067 1627603495 -129198843
            -627580021 -70133078 -121926277 -122364017</internalNodes>
          <leafValues>
            -9.5303326845169067e-01 8.1450873613357544e-01</leafValues></_>
        <_>
          <internalNodes>
            0 -1 5 -619561513 -1123448557 -922183712 -15363688
            -2088661585 -1105704949 713731560 -1323633</internalNodes>
          <leafValues>
            -7.8319180011749268e-01 8.4509235620498657e-01</leafValues></_>
        <_>
          <internalNodes>
            0 -1 29 -1328385961 -40905465 -922170375 -38452399
            -361289541 -69645087 -4030341 -4194357</internalNodes>
          <leafValues>
            -9.0031963586807251e-01 6.9650715589523315e-01</leafValues></_></weakClassifiers></_>
    <!-- stage 6 -->
    <_>
      <maxWeakCount>3</maxWeakCount>
      <stageThreshold>-9.4049769639968872e-01</stageThreshold>
      <weakClassifiers>
        <_>
          <internalNodes>
            0 -1 11 -715663009 1493631063 1427423728 -784330480
            -1986404197 -1203140280 -1063089960 -711855137</internalNodes>
          <leafValues>
            -8.5658913850784302e-01 7.7675276994705200e-01</leafValues></_>
        <_>
          <internalNodes>
            0 -1 47 1352057303 -145428079 1627504659 -614692643
            696459693 -276526352 -670193469 -273220963</internalNodes>
          <leafValues>
            -8.5046809911727905e-01 7.2710883617401123e-01</leafValues></_>
        <_>
          <internalNodes>
            0 -1 23 1462336991 1104888267 -988233251 1359028561
            322965695 -779976692 -895943126 -604912773</internalNodes>
          <leafValues>
            -7.9811543226242065e-01 7.6655960083007812e-01</leafValues></_></weakClassifiers></_>
    <!-- stage 7 -->
    <_>
      <maxWeakCount>4</maxWeakCount>
      <stageThreshold>-2.2330470383167267e-01</stageThreshold>
      <weakClassifiers>
        <_>
          <internalNodes>
            0 -1 21 -1 -1 -648479759 524358000 -257 -253 -892686598
            -551879693</internalNodes>
          <leafValues>
            -7.4652779102325439e-01 8.1054687500000000e-01</leafValues></_>
        <_>
          <internalNodes>
            0 -1 63 -741343525 -747695705 -753151465 -1865092841
            1124533063 -2110614685 -1367094563 -1459750017</internalNodes>
          <leafValues>
            -8.8318139314651489e-01 6.9848990440368652e-01</leafValues></_>
        <_>
          <internalNodes>
            0 -1 1 -542189838 -581413434 -1790315236 -553186287
            -2136946545 -1457339136 -1727280709 -70267505</internalNodes>
          <leafValues>
            -8.5471755266189575e-01 6.7929613590240479e-01</leafValues></_>
        <_>
          <internalNodes>
            0 -1 46 -916200447 428937217 -2128523007 -113043195
            -1073706860 1208123394 -1576910720 -358629841</internalNodes>
          <leafValues>
            -8.0847358703613281e-01 7.2710829973220825e-01</leafValues></_></weakClassifiers></_>
    <!-- stage 8 -->
    <_>
      <maxWeakCount>4</maxWeakCount>
      <stageThreshold>-1.5818538665771484e+00</stageThreshold>
      <weakClassifiers>
        <_>
          <internalNodes>
            0 -1 37 -1354643753 -72620769 673382549 -6956645 -1341456375
            -2133426097 -886914925 -3090191</internalNodes>
          <leafValues>
            -8.9561587572097778e-01 7.3951828479766846e-01</leafValues></_>
        <_>
          <internalNodes>
            0 -1 7 1389037805 -582889259 -1694446335 -115387115
            -1023407921 -117276672 -1928812158 -539250477</internalNodes>
          <leafValues>
            -7.2366887331008911e-01 7.3209625482559204e-01</leafValues></_>
        <_>
          <internalNodes>
            0 -1 26 813407485 2010593657 290820435 903459121 949723782
            -303955671 -1476294259 -1093725853</internalNodes>
          <leafValues>
            -8.3461529016494751e-01 6.5830290317535400e-01</leafValues></_>
        <_>
          <internalNodes>
            0 -1 13 -799733457 1438647440 26214673 -241106931 256
            -1606418295 8388867 -1736330277</internalNodes>
          <leafValues>
            -7.6308792829513550e-01 7.0481973886489868e-01</leafValues></_></weakClassifiers></_>
    <!-- stage 9 -->
    <_>
      <maxWeakCount>3</maxWeakCount>
      <stageThreshold>-1.0453017950057983e+00</stageThreshold>
      <weakClassifiers>
        <_>
          <internalNodes>
            0 -1 17 -663558305 -261989 213767 -350657515 -2132114529
            -1028126447 -356837669 -1410371797</internalNodes>
          <leafValues>
            -8.0842912197113037e-01 7.6252317428588867e-01</leafValues></_>
        <_>
          <internalNodes>
            0 -1 34 -248359427 -354266864 -1862187945 1060323351
            -123596565 1229474180 -1551125589 1528528699</internalNodes>
          <leafValues>
            -8.2783913612365723e-01 6.5597403049468994e-01</leafValues></_>
        <_>
          <internalNodes>
            0 -1 68 2068707741 -81554655 -1874615791 -1752461055
            -394021913 -1467874629 -2012511351 -68181111</internalNodes>
          <leafValues>
            -9.0941381454467773e-01 5.9096652269363403e-01</leafValues></_></weakClassifiers></_>
    <!-- stage 10 -->
    <_>
      <maxWeakCount>4</maxWeakCount>
      <stageThreshold>-1.6506366729736328e+00</stageThreshold>
      <weakClassifiers>
        <_>
          <internalNodes>
            0 -1 66 -112735841 1964593431 889524509 -1361324715
            568373371 1996663295 -1382835456 -1935175201</internalNodes>
          <leafValues>
            -8.8695651292800903e-01 7.0877194404602051e-01</leafValues></_>
        <_>
          <internalNodes>
            0 -1 15 1753515903 -417062640 287133519 521477713 671111674
            -1584769024 438312547 -284468725</internalNodes>
          <leafValues>
            -7.6084429025650024e-01 6.7983525991439819e-01</leafValues></_>
        <_>
          <internalNodes>
            0 -1 25 -2074914705 -553429617 -788528889 -112483701
            -233793345 -183746301 -218006645 -6084725</internalNodes>
          <leafValues>
            -8.4662407636642456e-01 6.0303795337677002e-01</leafValues></_>
        <_>
          <internalNodes>
            0 -1 33 67861495 1755685408 2187589 -473825624 8397539
            -1071077199 -2112765909 -544498504</internalNodes>
          <leafValues>
            -7.5194031000137329e-01 6.8051820993423462e-01</leafValues></_></weakClassifiers></_>
    <!-- stage 11 -->
    <_>
      <maxWeakCount>5</maxWeakCount>
      <stageThreshold>-1.0187402963638306e+00</stageThreshold>
      <weakClassifiers>
        <_>
          <internalNodes>
            0 -1 61 1974682903 1494417681 656233843 -362950383
            -1996388199 -9231981 -91850245 -455216709</internalNodes>
          <leafValues>
            -7.7687627077102661e-01 7.0731705427169800e-01</leafValues></_>
        <_>
          <internalNodes>
            0 -1 56 -641212937 -183573541 -1035955319 -115408885
            -1038556711 -250576460 -1441079009 -16975644</internalNodes>
          <leafValues>
            -8.4884351491928101e-01 5.9573853015899658e-01</leafValues></_>
        <_>
          <internalNodes>
            0 -1 53 -77 -49217 -35023 -557259 -655860516 -302687043
            -554017704 -69</internalNodes>
          <leafValues>
            -6.9007140398025513e-01 7.4151164293289185e-01</leafValues></_>
        <_>
          <internalNodes>
            0 -1 18 51321119 318963999 -649064307 487653667 1091129347
            671612928 1107821579 -610586438</internalNodes>
          <leafValues>
            -7.0196956396102905e-01 6.9615268707275391e-01</leafValues></_>
        <_>
          <internalNodes>
            0 -1 20 -1039771877 -1592197093 1140953167 1360347839
            318898331 991428625 -80835941 -611824240</internalNodes>
          <leafValues>
            -7.8330397605895996e-01 6.0089820623397827e-01</leafValues></_></weakClassifiers></_>
    <!-- stage 12 -->
    <_>
      <maxWeakCount>4</maxWeakCount>
      <stageThreshold>-3.2766669988632202e-01</stageThreshold>
      <weakClassifiers>
        <_>
          <internalNodes>
            0 -1 9 -105906212 -1249824481 -2080304545 -683605625
            -1592667973 -520028145 -506756561 -880820065</internalNodes>
          <leafValues>
            -8.5152840614318848e-01 6.9176882505416870e-01</leafValues></_>
        <_>
          <internalNodes>
            0 -1 67 -211813505 -607586564 -2144329725 -240330452
            -1844346749 -1040039800 -2147431933 -609244485</internalNodes>
          <leafValues>
            -7.3133081197738647e-01 7.0371651649475098e-01</leafValues></_>
        <_>
          <internalNodes>
            0 -1 2 -1597534016 1754399364 536948764 1716937035
            1913792019 167969795 -1845325429 -140630029</internalNodes>
          <leafValues>
            -8.9899736642837524e-01 5.2467799186706543e-01</leafValues></_>
        <_>
          <internalNodes>
            0 -1 36 -233880841 -221024208 -1979094112 -91930181
            -1601142486 -1567653752 725657 -1651509062</internalNodes>
          <leafValues>
            -7.0281213521957397e-01 7.3051446676254272e-01</leafValues></_></weakClassifiers></_>
    <!-- stage 13 -->
    <_>
      <maxWeakCount>4</maxWeakCount>
      <stageThreshold>-2.9591637849807739e-01</stageThreshold>
      <weakClassifiers>
        <_>
          <internalNodes>
            0 -1 54 -15 -1 -15 -1 -4915212 -196609 -340721676 -196609</internalNodes>
          <leafValues>
            -7.0786517858505249e-01 7.2983115911483765e-01</leafValues></_>
        <_>
          <internalNodes>
            0 -1 51 1444139871 898583299 772218704 -723745964
            -1202339615 -1079279551 -1466790334 -17891509</internalNodes>
          <leafValues>
            -8.4362083673477173e-01 5.8998405933380127e-01</leafValues></_>
        <_>
          <internalNodes>
            0 -1 42 -573317341 -2117607289 -1057948571 -620247155
            -1979054896 1789596617 -58178512 -1611677781</internalNodes>
          <leafValues>
            -7.7013152837753296e-01 6.1206364631652832e-01</leafValues></_>
        <_>
          <internalNodes>
            0 -1 75 -1026487330 -1044143999 1426133000 1540292687
            -2139053661 -2067758976 -1199545727 -1347734616</internalNodes>
          <leafValues>
            -7.5857466459274292e-01 6.4350599050521851e-01</leafValues></_></weakClassifiers></_>
    <!-- stage 14 -->
    <_>
      <maxWeakCount>5</maxWeakCount>
      <stageThreshold>-7.5893592834472656e-01</stageThreshold>
      <weakClassifiers>
        <_>
          <internalNodes>
            0 -1 32 -577009777 -1354757752 1147744164 1367518409
            405303958 -83361791 -840388950 -608515142</internalNodes>
          <leafValues>
            -7.8213506937026978e-01 6.6520595550537109e-01</leafValues></_>
        <_>
          <internalNodes>
            0 -1 27 285299039 855998721 -803941347 1504759921 1346373647
            -125796219 -1342140205 -500973173</internalNodes>
          <leafValues>
            -8.2610076665878296e-01 5.6898128986358643e-01</leafValues></_>
        <_>
          <internalNodes>
            0 -1 41 -664828841 1431400787 270909841 500007621
            -1339571725 -1863220223 -1575769157 -1396499793</internalNodes>
          <leafValues>
            -6.2033206224441528e-01 6.9822764396667480e-01</leafValues></_>
        <_>
          <internalNodes>
            0 -1 74 1601485374 2118123387 -2188 1878913021 -1611139721
            -9 -8392705 -1074052354</internalNodes>
          <leafValues>
            -6.3873398303985596e-01 7.1087276935577393e-01</leafValues></_>
        <_>
          <internalNodes>
            0 -1 3 -647987186 -1015021407 1079017554 -578321272
            -218061950 -2012602368 -243039838 -99784472</internalNodes>
          <leafValues>
            -6.3632285594940186e-01 7.3928660154342651e-01</leafValues></_></weakClassifiers></_>
    <!-- stage 15 -->
    <_>
      <maxWeakCount>6</maxWeakCount>
      <stageThreshold>-1.6558924913406372e+00</stageThreshold>
      <weakClassifiers>
        <_>
          <internalNodes>
            0 -1 58 -782542849 -1565765806 1359548703 -1350069027
            537952394 -653047616 545605962 791384299</internalNodes>
          <leafValues>
            -7.5416666269302368e-01 6.8035715818405151e-01</leafValues></_>
        <_>
          <internalNodes>
            0 -1 6 -588490034 -841149909 208884227 -2062712771
            -1129446501 -1995866109 -1031831285 -6356473</internalNodes>
          <leafValues>
            -8.5431599617004395e-01 5.1880264282226562e-01</leafValues></_>
        <_>
          <internalNodes>
            0 -1 45 -1010835536 -1866287855 8964285 -1527006061
            1634945338 -1742540347 2021186712 -4980833</internalNodes>
          <leafValues>
            -7.0431184768676758e-01 5.8020025491714478e-01</leafValues></_>
        <_>
          <internalNodes>
            0 -1 31 -1327526665 1413597573 2013266945 1027688898
            -2146207206 -129953726 -1140750325 -1392905725</internalNodes>
          <leafValues>
            -7.4963355064392090e-01 6.2068414688110352e-01</leafValues></_>
        <_>
          <internalNodes>
            0 -1 70 1964405526 -803741248 1074368663 1800902850
            -1064785406 -1879015422 185284878 -155194678</internalNodes>
          <leafValues>
            -6.4205896854400635e-01 6.8200999498367310e-01</leafValues></_>
        <_>
          <internalNodes>
            0 -1 28 -792470533 -1061817039 1075391199 -778975777
            -2004811532 -123485251 306246200 -728893283</internalNodes>
          <leafValues>
            -6.6379153728485107e-01 6.7547583580017090e-01</leafValues></_></weakClassifiers></_>
    <!-- stage 16 -->
    <_>
      <maxWeakCount>5</maxWeakCount>
      <stageThreshold>-9.6144652366638184e-01</stageThreshold>
      <weakClassifiers>
        <_>
          <internalNodes>
            0 -1 62 1105449847 1405501456 1627460566 -75703330
            -665054967 -1878982653 -2130212853 -23064</internalNodes>
          <leafValues>
            -8.0224716663360596e-01 6.5541124343872070e-01</leafValues></_>
        <_>
          <internalNodes>
            0 -1 14 -98852873 -1257045723 832164857 -145665535
            -1722513397 -226459456 -929519112 -715146817</internalNodes>
          <leafValues>
            -6.6183638572692871e-01 6.5817308425903320e-01</leafValues></_>
        <_>
          <internalNodes>
            0 -1 38 -1114219 -583925899 -1179658 -1112932353 -11
            -2097195 -12845124 -1936719913</internalNodes>
          <leafValues>
            -6.1913871765136719e-01 6.7713671922683716e-01</leafValues></_>
        <_>
          <internalNodes>
            0 -1 0 2031158008 -2146856815 -1760931577 1276088788
            1098964999 -1876880279 67676369 -1136676683</internalNodes>
          <leafValues>
            -7.2463160753250122e-01 6.3099730014801025e-01</leafValues></_>
        <_>
          <internalNodes>
            0 -1 64 -648547873 61657372 -2113922045 -1948266221
            386924715 -1087922024 -1039925166 1072677246</internalNodes>
          <leafValues>
            -7.9157471656799316e-01 5.5013197660446167e-01</leafValues></_></weakClassifiers></_>
    <!-- stage 17 -->
    <_>
      <maxWeakCount>4</maxWeakCount>
      <stageThreshold>-2.5053325295448303e-01</stageThreshold>
      <weakClassifiers>
        <_>
          <internalNodes>
            0 -1 49 1750266669 -137713697 -2113924597 2001408001
            -1744818946 1221077151 688087979 2134076399</internalNodes>
          <leafValues>
            -8.0295568704605103e-01 6.0804021358489990e-01</leafValues></_>
        <_>
          <internalNodes>
            0 -1 48 -934311923 68229251 -1740566469 541429763 1981515658
            -597760000 -24145765 -1999644501</internalNodes>
          <leafValues>
            -6.9360280036926270e-01 6.3486200571060181e-01</leafValues></_>
        <_>
          <internalNodes>
            0 -1 12 -67437105 -589839 1059446555 1596981137 -9120263
            -538026802 2133941739 -67109205</internalNodes>
          <leafValues>
            -5.3416329622268677e-01 7.8163284063339233e-01</leafValues></_>
        <_>
          <internalNodes>
            0 -1 40 -2144603728 -1458527848 -2146875129 -1322658673
            -2137890785 -1551753175 -2090816308 314110878</internalNodes>
          <leafValues>
            -8.6407238245010376e-01 5.4378646612167358e-01</leafValues></_></weakClassifiers></_>
    <!-- stage 18 -->
    <_>
      <maxWeakCount>5</maxWeakCount>
      <stageThreshold>-1.1315568685531616e+00</stageThreshold>
      <weakClassifiers>
        <_>
          <internalNodes>
            0 -1 16 268636255 2130939988 277025095 923256576 1543636997
            -520059893 -1442713591 -1090330350</internalNodes>
          <leafValues>
            -7.6293104887008667e-01 6.6373240947723389e-01</leafValues></_>
        <_>
          <internalNodes>
            0 -1 44 -1411443958 -102268886 -2004877296 -995114968
            42541122 -1836998629 -2008972720 -1851684349</internalNodes>
          <leafValues>
            -7.7389478683471680e-01 5.5064576864242554e-01</leafValues></_>
        <_>
          <internalNodes>
            0 -1 19 822546621 -1291124720 288724490 1595736149 805438234
            -2145386368 -1073696589 -619128847</internalNodes>
          <leafValues>
            -7.6312071084976196e-01 5.5168575048446655e-01</leafValues></_>
        <_>
          <internalNodes>
            0 -1 72 31367673 -695664563 16843786 1633620033 -1878964096
            1091600385 983670787 -1279360533</internalNodes>
          <leafValues>
            -6.3114744424819946e-01 7.0241069793701172e-01</leafValues></_>
        <_>
          <internalNodes>
            0 -1 73 1103203304 -371522408 339978 -510328831 -1585445327
            1879048192 -628958707 1941379774</internalNodes>
          <leafValues>
            -8.3980983495712280e-01 5.5575132369995117e-01</leafValues></_></weakClassifiers></_>
    <!-- stage 19 -->
    <_>
      <maxWeakCount>6</maxWeakCount>
      <stageThreshold>-1.2784606218338013e+00</stageThreshold>
      <weakClassifiers>
        <_>
          <internalNodes>
            0 -1 22 960561331 -218037232 1107333440 1879048960
            -1073709034 -805298048 -1979587837 -1283292381</internalNodes>
          <leafValues>
            -7.2803348302841187e-01 6.6666668653488159e-01</leafValues></_>
        <_>
          <internalNodes>
            0 -1 8 -537047909 -284754176 -1611731045 1443855155
            1064309848 1329781836 1059487656 -4325841</internalNodes>
          <leafValues>
            -6.0353446006774902e-01 7.3747026920318604e-01</leafValues></_>
        <_>
          <internalNodes>
            0 -1 71 1055866847 132939770 -65737 -210796562 359612366
            -168361985 -8423596 -11829250</internalNodes>
          <leafValues>
            -6.0972583293914795e-01 7.4140995740890503e-01</leafValues></_>
        <_>
          <internalNodes>
            0 -1 39 1355227936 809308227 26247294 -1790496593
            -2146926072 -1576926525 42160360 -2000695861</internalNodes>
          <leafValues>
            -7.1071839332580566e-01 6.9106179475784302e-01</leafValues></_>
        <_>
          <internalNodes>
            0 -1 43 -71609919 201292799 -35057 -1074037121 1062162309
            -2138113 1064263631 -4513961</internalNodes>
          <leafValues>
            -6.6198986768722534e-01 7.3169445991516113e-01</leafValues></_>
        <_>
          <internalNodes>
            0 -1 69 68096334 -1873796736 268960002 632000514 1669951626
            -1694498647 -469685856 -1902437682</internalNodes>
          <leafValues>
            -7.9717618227005005e-01 6.4084130525588989e-01</leafValues></_></weakClassifiers></_></stages>
  <features>
    <_>
      <rect>
        0 2 2 1</rect></_>
    <_>
      <rect>
        1 6 26 11</rect></_>
    <_>
      <rect>
        1 35 1 1</rect></_>
    <_>
      <rect>
        2 0 1 1</rect></_>
    <_>
      <rect>
        2 0 26 13</rect></_>
    <_>
      <rect>
        2 13 26 7</rect></_>
    <_>
      <rect>
        8 2 16 10</rect></_>
    <_>
      <rect>
        12 15 21 5</rect></_>
    <_>
      <rect>
        13 21 18 3</rect></_>
    <_>
      <rect>
        14 0 22 13</rect></_>
    <_>
      <rect>
        15 0 13 13</rect></_>
    <_>
      <rect>
        15 16 18 3</rect></_>
    <_>
      <rect>
        15 20 17 4</rect></_>
    <_>
      <rect>
        16 14 10 4</rect></_>
    <_>
      <rect>
        16 15 17 4</rect></_>
    <_>
      <rect>
        16 20 17 3</rect></_>
    <_>
      <rect>
        17 7 10 4</rect></_>
    <_>
      <rect>
        17 7 11 7</rect></_>
    <_>
      <rect>
        17 13 15 6</rect></_>
    <_>
      <rect>
        17 15 17 5</rect></_>
    <_>
      <rect>
        17 17 16 5</rect></_>
    <_>
      <rect>
        18 14 16 5</rect></_>
    <_>
      <rect>
        19 1 8 6</rect></_>
    <_>
      <rect>
        19 12 14 6</rect></_>
    <_>
      <rect>
        19 14 8 5</rect></_>
    <_>
      <rect>
        20 0 10 8</rect></_>
    <_>
      <rect>
        20 8 8 4</rect></_>
    <_>
      <rect>
        21 1 14 6</rect></_>
    <_>
      <rect>
        21 15 6 4</rect></_>
    <_>
      <rect>
        22 2 10 8</rect></_>
    <_>
      <rect>
        22 6 10 8</rect></_>
    <_>
      <rect>
        22 8 6 4</rect></_>
    <_>
      <rect>
        22 11 11 6</rect></_>
    <_>
      <rect>
        22 15 6 5</rect></_>
    <_>
      <rect>
        22 20 12 3</rect></_>
    <_>
      <rect>
        23 10 11 9</rect></_>
    <_>
      <rect>
        23 13 5 5</rect></_>
    <_>
      <rect>
        23 13 9 9</rect></_>
    <_>
      <rect>
        23 14 5 3</rect></_>
    <_>
      <rect>
        23 16 4 2</rect></_>
    <_>
      <rect>
        23 18 4 4</rect></_>
    <_>
      <rect>
        24 11 5 3</rect></_>
    <_>
      <rect>
        24 20 5 3</rect></_>
    <_>
      <rect>
        25 5 10 3</rect></_>
    <_>
      <rect>
        25 8 6 8</rect></_>
    <_>
      <rect>
        25 18 4 4</rect></_>
    <_>
      <rect>
        25 19 4 3</rect></_>
    <_>
      <rect>
        25 21 8 5</rect></_>
    <_>
      <rect>
        26 11 4 3</rect></_>
    <_>
      <rect>
        26 20 6 3</rect></_>
    <_>
      <rect>
        27 0 7 12</rect></_>
    <_>
      <rect>
        27 15 9 3</rect></_>
    <_>
      <rect>
        27 16 7 4</rect></_>
    <_>
      <rect>
        27 19 4 4</rect></_>
    <_>
      <rect>
        27 20 4 5</rect></_>
    <_>
      <rect>
        28 21 7 5</rect></_>
    <_>
      <rect>
        29 22 5 6</rect></_>
    <_>
      <rect>
        31 17 6 2</rect></_>
    <_>
      <rect>
        31 20 7 3</rect></_>
    <_>
      <rect>
        33 1 9 13</rect></_>
    <_>
      <rect>
        33 15 4 3</rect></_>
    <_>
      <rect>
        33 18 6 2</rect></_>
    <_>
      <rect>
        33 18 7 6</rect></_>
    <_>
      <rect>
        34 14 4 4</rect></_>
    <_>
      <rect>
        34 21 4 3</rect></_>
    <_>
      <rect>
        35 16 4 3</rect></_>
    <_>
      <rect>
        35 17 4 3</rect></_>
    <_>
      <rect>
        37 20 3 5</rect></_>
    <_>
      <rect>
        40 4 11 12</rect></_>
    <_>
      <rect>
        68 34 4 2</rect></_>
    <_>
      <rect>
        73 3 1 1</rect></_>
    <_>
      <rect>
        73 34 2 2</rect></_>
    <_>
      <rect>
        75 35 1 1</rect></_>
    <_>
      <rect>
        76 2 1 1</rect></_>
    <_>
      <rect>
        77 0 1 1</rect></_>
    <_>
      <rect>
        77 37 1 1</rect></_></features></cascade>
</opencv_storage>
